56 100
</s> -0.008556 0.0077882 -0.0066651 -0.0018322 0.0046242 0.0013573 0.0065667 0.00076143 0.010248 0.0091139 -0.00083953 0.0032273 0.0096383 0.0074873 -0.0039419 -0.0020024 0.00019595 0.0057785 0.00078504 -0.0080498 -0.0013812 0.0065707 0.0057236 -0.0065019 0.0056 -0.0065412 0.0020074 -0.0034499 -0.0015216 0.01015 -0.006934 -0.0037467 -0.0081509 -0.0063709 -0.0096073 -0.00071852 0.0041344 -0.0085363 -0.0019517 -0.0069491 0.0098605 0.0074481 0.0038621 0.001907 -0.0051694 0.0016597 -0.0050242 -0.0047581 -0.007712 0.0025539 -0.0065067 0.0094515 -0.008985 0.0045009 -0.00037538 -0.0058933 0.0016889 0.0024985 0.0041558 0.0033584 -0.0067136 0.0047354 0.0067016 0.0054435 -0.00383 0.00078365 -0.0074054 0.005868 0.0087441 0.0056506 -0.010164 -9.734e-05 -0.0043146 0.0010808 -0.00035722 -0.0037507 0.009789 0.0092605 -0.0006196 -0.0037353 -0.0093359 0.0060002 0.0092067 -0.0092337 -0.0053323 -0.0079564 0.00050639 0.000591 -0.0034975 -0.0035897 0.0098495 0.0046306 0.0093087 -0.0091383 0.001193 -0.0087443 0.0067943 0.010027 -0.0054909 -0.0022232 
Not 0.0023969 0.0050963 0.0083508 -0.0092842 0.006635 0.0080606 -0.0065081 0.0013007 -0.0034586 -0.0020891 -0.00075519 -0.0063448 -0.0048786 0.0021865 -0.0060844 -0.0071549 0.0033898 0.0060385 -0.0068727 -0.00058075 -0.0048867 0.0099031 0.0039613 0.0069698 -0.0086032 -0.0061528 -0.0098639 -0.0012276 -0.0022323 -0.0073093 -0.0050062 -0.00074242 0.0039395 -0.0058741 -0.0063347 -0.0021077 -0.0071965 0.004301 -0.00055446 -0.0027407 -0.0099981 0.0094417 -0.0051751 0.0030758 0.0088211 0.0019429 0.0081093 -0.0033665 -0.0039505 0.0035163 -0.0010382 -0.0018538 0.0023509 0.0049092 -0.0090773 0.0035457 -0.0096498 0.0006663 0.0087504 -0.0024412 -0.0001424 0.0035411 0.0056718 0.0078461 0.0045574 -0.0035786 -0.0070696 -0.0052554 -0.0057907 -0.0056653 0.0015863 0.0050728 0.0058242 -0.0073218 -0.0023598 -0.0025311 -0.003917 0.0029038 0.0064247 0.0056455 0.00051602 -0.0058097 0.0027166 0.0028069 0.0047918 0.0036065 -0.0019992 -0.0098746 -0.0047365 0.0072773 0.0028687 0.0024957 0.0025027 0.0017977 0.0093489 0.0023039 -0.0006697 0.0023843 -0.006822 -0.0071255 
Status 0.0073162 -0.0080592 -0.00088466 -0.0034991 0.00031065 -0.0073393 -0.008633 -0.0094443 0.0096487 0.0091935 -0.010006 -0.0024213 -0.0019138 -0.0060051 -0.002891 0.0047123 0.0025072 -0.0028624 -0.0076484 0.0031995 0.0070522 -0.006513 -0.0064177 0.002696 -0.00038606 -0.0013626 0.0050532 -0.009442 -0.0083837 0.002138 0.0030339 0.0071113 -0.0044945 0.0030074 -0.008553 -0.0071486 -0.0075283 0.0089027 0.0087137 0.0083943 -0.0077214 0.0046445 0.0047482 -4.5158e-05 0.0037841 0.004623 0.0081796 0.0076739 0.0060706 0.0073478 -0.0016272 -0.0004225 0.0054122 -0.0056433 -0.0097163 0.0079864 0.0018504 -0.008317 -0.0066995 -0.0042068 0.0097589 0.0085294 0.0067693 0.0066038 -0.0063071 0.0031337 -0.0055304 -0.0022119 0.003988 -0.0088822 0.0072324 0.003532 0.0034363 -0.0097786 -0.0090497 0.0032652 0.008809 -0.0038595 0.0090081 -0.0078371 0.0086961 -0.0025037 -0.0069879 -0.0051179 -0.0021182 -0.0068718 -0.0023015 0.0094897 0.0065272 -0.0036184 -0.0063185 -0.00054948 0.0068519 -0.0031071 0.0033238 -0.0013172 -0.0021689 0.0052167 0.0058781 0.0088467 
Found 0.0003422 0.0092681 -0.0061037 -0.0034185 0.00082908 0.0079878 -0.0059874 -0.00044338 0.0060496 0.0064846 -0.004246 0.0089294 -0.0072579 0.004327 0.0053296 -0.0055907 -0.0067724 -0.0077646 0.007783 0.0030279 0.0084077 0.0086005 -0.00029807 0.0013945 -0.0070653 0.0047856 0.0078187 -0.0023355 -0.0092459 -0.0049685 0.0066222 0.0053288 -0.00060849 0.0084632 -0.0018961 0.0078433 0.0021312 -0.0040152 -0.001764 0.004273 0.002153 -0.00040617 -0.0039532 -0.0067856 -0.00082574 -0.0044051 0.0073118 -0.00121 0.0045386 0.0065611 -0.0094976 -0.0059173 0.001463 -0.0067217 -0.0019101 -0.0052694 -0.00030422 0.0027315 0.004385 0.00067874 -0.0081681 0.0026721 0.0030966 -0.0083911 -0.0069154 0.0023411 0.00072667 -0.0053273 -0.0014059 -0.0041115 0.0086627 0.0026041 0.00056559 0.0040511 -9.263e-05 0.0083981 0.004754 0.009269 0.0066155 -0.0076514 0.0010643 0.003162 0.0080934 0.0053275 0.0096 1.4405e-05 -0.0011984 0.0075345 -0.0092481 -0.008836 0.0011554 -0.0059977 0.00091808 0.0031416 -0.0060734 -0.0039842 0.00034876 0.0043289 -0.0024112 0.002326 
not -0.0042765 0.0049526 0.00025964 0.0015256 0.0094343 0.0092613 0.0044978 -0.0094569 0.005378 0.0042735 -0.00042504 -0.0047252 -0.0047704 0.0026763 0.0087579 0.00081948 0.0028224 -0.0022406 -0.0057977 0.0089744 0.0082748 -0.0029732 -0.0044985 -0.0092021 0.0029819 0.003819 0.0092345 0.0036513 0.0073213 0.0069363 0.0054075 -0.0088318 -0.0079312 -0.0018146 0.00097565 0.0070226 -0.009107 0.0093146 0.0057649 0.00075454 -0.0037458 -0.0024552 0.0075706 0.0093853 0.0047061 -0.0099663 -0.00084308 0.008772 -0.0019541 -0.0030643 -0.0051704 0.005266 0.0043477 0.00034486 0.0094251 0.0073161 -0.0051687 0.0050352 -0.0095243 0.0092147 0.0029783 0.0017873 -0.0044147 -0.0012036 0.0072813 0.0053626 -0.0045578 -0.0088172 -0.0056872 0.0041754 -0.0041191 -0.00092827 -0.0073865 0.0069739 -0.004945 -0.004208 -0.0068719 -0.0097455 0.0045317 -0.002461 -0.0078027 0.0019541 0.00077731 0.0034129 -0.00067411 -0.0030151 0.0025309 0.0055318 -0.0045233 0.0074638 0.0055952 0.00077171 0.009014 -0.00057522 0.002345 0.0076458 -0.00047244 -0.0088276 -0.0063605 -0.0059865 
你似乎来到了没有知识存在的荒原 0.0093629 0.0050464 0.0061924 -0.0045152 0.0051304 0.0035437 -0.0079731 -0.0028464 -0.0085506 0.009434 -2.7268e-05 0.0038773 -0.0052888 -0.0015527 -0.0064774 0.0039893 -0.0065118 -0.008287 0.0073826 -0.0065886 -0.0071283 0.001957 0.0063889 -0.0029415 0.0025576 0.0064496 -9.2607e-05 -0.0066694 -0.0083475 -0.0066298 -0.0068963 0.0068587 -0.0047315 -0.0011542 0.0039338 0.0062699 -0.0072772 -0.0050824 -0.0083632 0.0089964 -0.006265 -0.00037016 -0.0044022 0.0032243 0.007829 -0.0030661 -0.002904 -0.0098964 -0.0052569 0.0081208 -0.0058178 -0.0085009 -0.0098349 0.0064613 0.0042118 0.002607 0.0019086 -0.00051568 0.0004733 -0.0023754 -0.0082833 0.0078895 -0.0062215 -0.0020875 0.0048987 0.0011943 0.0062268 0.00023274 0.0098638 0.0093863 -0.0014447 0.0030841 0.0092645 0.0071771 -0.004069 -0.0017108 0.00028642 0.0058166 0.00083774 -0.0081387 -0.0013101 0.0069166 0.0055242 -0.0061406 0.0056324 -0.0063846 0.0016015 -0.0037514 -0.0017534 0.0098483 -0.0067386 -0.0032855 -0.0085059 -0.0065011 -0.0092237 -0.00066547 0.0034258 -0.0087286 -0.0021974 -0.0066498 
– 0.0098268 0.0074162 0.0034737 0.0017447 -0.0048841 0.0018527 -0.0045843 -0.0046137 -0.0080962 0.0026641 -0.0070054 0.0089705 -0.009167 0.0046854 -0.00069973 -0.0055364 0.0014316 0.0020926 0.0039663 0.0032875 -0.0065278 0.0050456 0.006489 0.0050771 -0.0036129 0.00065866 -0.0070668 0.0058388 0.0082342 0.0058727 -0.0098057 0.00022088 -0.004107 0.0011909 9.6798e-05 -0.0037967 0.009621 0.0092811 -0.00104 -0.0039131 -0.0088787 0.006038 0.0096582 -0.0089853 -0.0051925 -0.0078941 0.00071735 0.00043004 -0.0034213 -0.0036417 0.0095346 0.0046788 0.0090622 -0.0089979 0.0014346 -0.0087664 0.0062234 0.0095656 -0.0054922 -0.001874 0.0023885 0.0051085 0.0083118 -0.0092885 0.0066216 0.0080669 -0.006463 0.0013363 -0.0034558 -0.0020922 -0.00069376 -0.0063237 -0.004837 0.0022173 -0.0060492 -0.0071756 0.0033819 0.0060419 -0.0069014 -0.00057826 -0.0048665 0.0098843 0.0039993 0.0069574 -0.0086038 -0.0061646 -0.0098286 -0.0012178 -0.0022035 -0.0072874 -0.0050256 -0.00076672 0.0039558 -0.0058586 -0.0063422 -0.0021157 -0.0071743 0.004289 -0.00053622 -0.0027492 
404 -0.0099831 0.0094456 -0.0051274 0.0030762 0.0088197 0.001917 0.0080585 -0.0033927 -0.003934 0.003521 -0.0010351 -0.0018261 0.002347 0.0048738 -0.0090628 0.0035336 -0.0096341 0.00069473 0.0087697 -0.0024453 -0.00015461 0.0035307 0.0056744 0.0078888 0.0045485 -0.0035621 -0.0071131 -0.0052701 -0.0057779 -0.0057049 0.0015696 0.0050761 0.0057859 -0.0073387 -0.0023776 -0.0025261 -0.0039401 0.002888 0.0064423 0.0056723 0.00048476 -0.0058171 0.0026625 0.0027848 0.0047903 0.003619 -0.0019905 -0.0098564 -0.0047639 0.0072836 0.0028614 0.0024646 0.0025106 0.0018041 0.0093139 0.0023259 -0.00064355 0.0024022 -0.0068328 -0.0071515 0.0073078 -0.008047 -0.0009237 -0.0035034 0.00029723 -0.0073329 -0.0085879 -0.0094087 0.0096515 0.0091904 -0.0099445 -0.0024002 -0.0018722 -0.0059743 -0.0028558 0.0046916 0.0024994 -0.002859 -0.007677 0.003202 0.0070723 -0.0065319 -0.0063797 0.0026836 -0.00038661 -0.0013744 0.0050884 -0.0094322 -0.0083548 0.0021599 0.0030146 0.007087 -0.0044782 0.0030229 -0.0085605 -0.0071566 -0.007506 0.0088907 0.0087319 0.0083858 
HTTP -0.0077065 0.0046485 0.0047959 -4.471e-05 0.0037826 0.004597 0.0081289 0.0076477 0.0060871 0.0073524 -0.0016242 -0.00039481 0.0054084 -0.0056788 -0.0097017 0.0079743 0.001866 -0.0082886 -0.0066802 -0.0042109 0.0097467 0.008519 0.006772 0.0066466 -0.006316 0.0031502 -0.0055739 -0.0022266 0.0040008 -0.0089218 0.0072158 0.0035354 0.0033979 -0.0097955 -0.0090675 0.0032703 0.0087858 -0.0038753 0.0090258 -0.0078103 0.0086648 -0.0025111 -0.007042 -0.00514 -0.0021197 -0.0068594 -0.0022928 0.0095079 0.0064999 -0.0036121 -0.0063258 -0.00058062 0.0068598 -0.0031007 0.0032889 -0.0012952 -0.0021427 0.0052347 0.0058673 0.0088207 0.00033912 0.0092821 -0.0061324 -0.0034275 0.00082348 0.0079901 -0.0059517 -0.00041943 0.006045 0.006488 -0.0042 0.0089471 -0.0072258 0.0043496 0.00536 -0.0056049 -0.0067792 -0.0077607 0.0077575 0.0030273 0.0084274 0.0085895 -0.00026472 0.0013897 -0.0070628 0.0047776 0.0078449 -0.0023326 -0.0092253 -0.004954 0.0066058 0.0053144 -0.00060164 0.0084749 -0.0018969 0.0078367 0.0021382 -0.0040312 -0.0017514 0.0042728 
exists. 0.0021612 -0.00040411 -0.0039248 -0.0067838 -0.00082933 -0.0044211 0.0072811 -0.0012235 0.0045521 0.006562 -0.0094904 -0.0058977 0.0014636 -0.0067426 -0.0018988 -0.0052797 -0.00029412 0.0027503 0.0043969 0.00067703 -0.0081761 0.0026625 0.0031 -0.0083651 -0.0069224 0.0023509 0.00070062 -0.0053348 -0.0013946 -0.0041353 0.0086505 0.002603 0.00054314 0.0040411 -0.00010672 0.008401 0.0047437 0.0092598 0.0066292 -0.0076363 0.0010439 0.0031571 0.0080603 0.0053138 0.0095971 2.0699e-05 -0.0011961 0.0075464 -0.0092628 -0.0088328 0.0011544 -0.0060147 0.00092501 0.0031437 -0.006094 -0.0039723 0.00036772 0.0043439 -0.002417 0.0023089 -0.0042834 0.0049579 0.00023494 0.0015258 0.0094236 0.0092665 0.004525 -0.0094332 0.0053831 0.0042687 -0.00038662 -0.0047129 -0.0047448 0.0026958 0.008778 0.00080592 0.002818 -0.0022393 -0.0058136 0.0089772 0.0082851 -0.0029866 -0.0044771 -0.0092122 0.0029801 0.0038112 0.0092566 0.0036597 0.0073399 0.006951 0.0053963 -0.0088489 -0.0079183 -0.0018051 0.00096857 0.0070179 -0.0090883 0.0093106 0.0057769 0.00074614 
付费咨询 -0.0037306 -0.0024459 0.0076128 0.0093807 0.004721 -0.0099884 -0.00088917 0.0087399 -0.0019479 -0.0030481 -0.0051895 0.0052811 0.0043327 0.00030975 0.0094258 0.0073129 -0.0051598 0.0050563 -0.0095079 0.0092061 0.0029695 0.0017929 -0.0044133 -0.0011658 0.0072837 0.0053784 -0.004595 -0.0088384 -0.0056941 0.0041416 -0.0041312 -0.00091418 -0.0074261 0.0069551 -0.0049551 -0.0042014 -0.0069051 -0.0097601 0.0045385 -0.0024288 -0.007826 0.0019525 0.00073362 0.0033945 -0.00066834 -0.0029993 0.0025493 0.0055377 -0.0045567 0.0074746 0.0055748 0.00073717 0.0090116 -0.00056052 0.0023102 0.0076725 -0.00045688 -0.0088249 -0.0063706 -0.0060013 0.0093462 0.0050572 0.0061365 -0.0045167 0.005092 0.0035574 -0.0079061 -0.0027867 -0.0085401 0.0094174 7.3336e-05 0.0039051 -0.0052217 -0.0014994 -0.0064212 0.0039606 -0.006517 -0.0082823 0.0073434 -0.0065743 -0.0071036 0.0019201 0.0064358 -0.0029693 0.0025452 0.0064241 -4.3007e-05 -0.0066451 -0.0082914 -0.0065939 -0.006911 0.0068173 -0.0046934 -0.0011248 0.0039276 0.0062526 -0.0072291 -0.0050948 -0.0083347 0.0089667 
Apache -0.006251 -0.00037466 -0.0043526 0.0032357 0.0078081 -0.003101 -0.0029671 -0.0098982 -0.005206 0.0081069 -0.005772 -0.0084461 -0.0098157 0.0064153 0.0042515 0.0025671 0.0019255 -0.00047232 0.00049386 -0.0023817 -0.0065991 0.0056723 -0.0024171 0.0059279 -0.00025646 -0.0075806 0.0023737 -0.0095384 0.0097952 0.008657 0.0070451 -0.0038701 0.0084519 0.0043158 0.0017677 0.0065873 -0.0094195 0.0015874 -0.0082347 -0.0062465 0.007289 0.0037969 0.00090485 -0.0023289 0.0012204 -0.0027403 -0.0068236 0.0025662 0.0064689 0.009695 -0.0034544 0.0033824 -0.0069563 -0.0030127 -0.0085161 0.0087049 -0.0030401 -0.0073409 0.0055869 -0.0033847 0.009636 0.0048343 -0.0030979 -0.006501 0.0002056 -0.0062812 0.00087736 0.00081955 -0.0061725 -0.0046895 -0.0039415 0.00796 -0.0082893 -0.00059329 0.0086303 -0.0010991 -0.0071431 -0.0058146 -0.0020896 -0.003416 -0.0030444 6.2153e-05 0.0030087 0.00012902 0.0027663 -0.0086981 -0.0040936 0.0016997 0.0065034 0.001775 -0.0096288 -0.0095952 0.0018178 -0.0076011 -0.0098268 0.0023989 0.0092914 0.0085662 0.0079432 0.0021487 
Tomcat/8.5.54 -0.0077463 0.0020785 0.0093628 -0.0079622 -0.00040004 -0.0058161 -0.0086175 -0.0091554 0.0031918 0.002712 0.0090989 -0.00059992 0.0081351 -0.0080294 -0.0071033 -0.0075598 0.0024661 0.0091681 -0.00096387 0.0062517 -0.0052386 0.00019012 0.0066349 -0.0085327 0.0032261 0.0061495 -0.0029692 -0.0073356 0.0031191 0.0057753 0.0085851 -0.0026594 0.00029057 -0.0055818 -0.0021332 -0.0043468 -0.0032415 0.0020693 -0.0037698 0.0088654 0.0002277 0.0097589 -0.0020586 0.0038908 -0.007219 -0.0023226 -0.0096634 0.0075871 0.0055741 -0.0045709 -4.2039e-05 0.0084442 -0.0020695 -0.0017194 -0.0027176 0.005784 -0.0043061 -0.001383 0.0089204 0.0044681 -0.0099838 0.0088931 -0.00030012 -0.003838 0.007613 -0.0061527 0.0061629 0.0032616 0.002152 -0.0029759 0.007999 0.0063668 -0.0052613 -0.00021664 -0.0080958 -0.0029593 -0.0092746 -0.0086104 0.0075173 0.0051184 0.0097019 -0.0029676 0.0013795 0.0057525 -0.00091096 0.0028604 -0.0041863 -0.00051813 -0.0015209 -0.0013801 -0.006878 0.00011536 0.0016034 -0.0046604 0.0052245 0.0049402 0.0021691 -0.0042201 0.0029078 0.0013197 
(Debian) -0.0090194 -0.0016319 -0.0046286 -0.004422 -0.00043433 -0.0027899 0.0059669 -0.0097282 0.00050666 0.0045625 -0.0042474 -0.0050282 -0.0049682 -0.0064255 0.0086554 -0.005375 0.0087322 -0.0051587 -0.0036451 -0.0043033 0.0046 -0.0061209 0.008164 0.0030375 -0.0094226 -0.0046502 -0.007219 -0.0088256 0.0093337 0.0083405 -0.0099163 0.0051875 0.0062201 -0.0019649 0.0042536 -0.00061253 -0.0050066 0.0042675 -0.0053211 -0.0035741 0.0041054 -0.0030734 -0.0028164 -0.0046568 0.0092153 0.0072578 0.00017063 -0.0088417 -0.0067286 -0.0056764 -0.0039617 0.0041517 0.0010625 -0.0039563 -0.007154 -0.0042978 -0.0049696 0.0078205 0.0074567 0.0067381 -0.0054305 -0.00070117 -0.00045355 0.0099202 -0.0024611 -0.00079261 0.0063036 0.0053424 0.0021942 0.004687 0.0068209 0.0092294 0.00086136 -0.0013218 -0.0093737 0.0059221 -0.0062743 -0.006577 -0.0033825 0.0015872 0.0095046 0.0070088 0.0035747 0.0032679 -0.00264 -0.003715 -0.0011079 0.0055689 -0.0019634 -0.007814 0.0044142 -0.0029662 -0.0031725 -0.009574 -0.0081555 -0.0034671 0.007621 0.0022534 0.0080747 -0.0056455 
one 0.0073407 0.0049802 -0.0040376 -0.00027158 0.0057457 -0.0037465 0.0053624 0.0090003 0.0030342 0.0027712 -0.0026219 0.0088813 0.0037302 0.003765 -0.0033948 0.0073827 0.0057338 0.00050619 0.0017552 0.0076411 -0.0093373 0.0085372 -0.0022535 0.0031893 -0.0083701 0.0059959 -0.0019465 0.009153 0.0021207 0.0029357 0.0015726 0.0078822 -0.004487 -0.0013171 0.00068512 -0.0012055 -0.0035639 -0.0055357 0.0055478 -0.0039235 0.0068155 0.0071694 0.0094135 -0.0072447 -0.0041371 -0.00043817 0.0056837 0.0053575 -0.0084695 9.5732e-05 0.0032208 0.00060647 0.0088156 0.0069478 0.006173 0.0056889 -0.005681 0.0019766 0.0064901 -0.0014878 -0.0056844 0.009197 0.0021257 -0.0035673 0.0083307 0.0011631 0.0045893 0.0075766 -0.00089068 0.0031192 -0.0089424 -0.0017832 -0.0070473 -0.0034657 0.0062225 -0.00057291 0.0094074 -0.0044981 -0.0012221 -0.0086431 -0.0063419 -0.0046883 -0.0037787 -0.0067402 -0.0038466 -0.005306 -0.0085767 -0.00066118 0.0072293 0.001744 0.0072898 -0.0048111 -0.0089009 -0.0019083 0.0097795 0.0067972 -0.00049386 0.0085156 0.0032703 -0.0052811 
- -0.0078969 -0.0036766 0.0061628 0.00062306 0.0092091 -0.0099807 0.0075617 0.0050606 -0.0085194 -0.0076493 -0.0077104 -0.0020143 -0.0081649 -0.0037476 -0.0021874 0.0020521 -0.0092557 -0.0012912 0.0051824 -0.0053908 0.0014244 -7.8679e-05 -0.0095287 -0.0069105 0.0088497 0.0085489 -0.00098717 -0.0088877 0.00075929 -0.0014965 0.0092146 0.00058822 0.00047068 -0.0046273 0.0075459 -0.0083815 -0.0043972 0.0055068 -0.0016204 0.0079865 0.0065469 0.0040252 0.001002 -0.0084427 -0.0040341 -0.0023618 0.0085316 -0.0026747 0.0046462 0.0039128 0.00077215 -0.0077323 -0.005839 0.0064046 -0.0080977 0.0040624 -0.008161 0.0086238 0.0015436 -0.0085225 0.0025221 0.005119 0.0051696 0.0087598 -0.00059637 -0.0099631 0.0082888 0.0075395 0.0061147 0.0038872 -0.0002784 0.00059005 -0.0012675 -0.0093271 0.0089078 0.004597 -0.00032483 0.00011716 -0.009055 0.0084266 -0.0040362 -0.0064512 0.0012203 0.0076406 0.004555 0.00073133 0.0008596 -0.0076526 -0.0013321 -0.0016809 0.0017229 0.0081303 -0.0048142 0.0039395 8.3549e-05 0.0015799 -0.0037621 -0.0095326 -0.00089454 0.0051128 
知乎 -0.0056309 -0.0060923 -0.0084693 -0.0032061 0.0086609 0.0039603 -0.0049798 0.0010551 0.00093021 0.0049505 0.0011691 -0.0084753 0.0080268 0.0088188 -0.0053506 0.0053122 0.0091019 -0.0076042 -0.0027161 -0.0020158 0.0086752 8.0035e-05 0.0022816 0.0010337 0.00016809 -0.0028618 -0.0058677 0.0044075 -0.0070686 0.0087634 -0.0098846 -0.0021888 -0.00050392 0.0069713 -0.0028822 -0.0020699 -0.0030607 -0.006595 0.0047221 -0.0031119 -0.0042562 -0.0061748 0.0027847 0.0040312 -0.0049203 0.002875 0.0099222 -0.0032611 -0.0066188 -0.0031798 -0.0038355 0.003588 0.00062908 0.007761 -0.0021974 0.0025421 -0.0044096 -0.0001483 -0.0066852 0.0078927 -0.0025047 0.0092759 0.0012665 -0.0035431 0.0056149 0.0037994 0.0041023 -0.0097739 -0.00041605 0.0062278 -0.001496 -0.0068734 -0.0095954 0.0028556 -0.0014621 -0.0048805 -0.0061566 0.0090646 -0.0090424 0.0052371 -0.0048757 0.0035057 0.001415 -0.0061084 -0.0053767 0.0036176 -0.0014167 0.00068573 0.0097085 0.0079978 -0.0044455 0.0091887 0.0076769 0.0014835 0.0076567 -0.0051282 0.00086533 -0.0026442 0.0026598 -0.0043611 
关注 -0.0040521 0.0007046 -0.003605 0.0015004 -0.0031517 0.00087037 0.0047238 0.0088177 -0.0052956 0.0095601 -0.00020638 -0.009917 -0.005452 0.00044907 -0.0077775 -0.0019417 -0.0095535 -0.0059949 -0.0066054 -8.6048e-05 0.0094471 0.0022613 -0.0096475 0.0052818 0.0053133 0.0055926 0.0062831 0.0062082 -0.0042705 0.007936 -0.00092056 0.0069568 -0.0074703 -0.0059073 -0.0020595 0.0033576 0.0042509 0.0062647 -0.0081324 0.0099066 0.00041481 -0.0049072 -0.00052463 -0.0048223 0.0091573 0.0019685 -0.0011199 -0.0024472 0.0047227 -0.0023269 -0.0094661 0.00057407 0.0077213 0.0036141 0.00022808 0.0086241 0.0089468 0.0078459 -0.0030949 0.0082124 -0.0066195 -0.0018562 0.0090211 -0.0069601 0.0044024 -0.0037248 0.0021055 0.0012837 0.0097798 0.0090853 0.0086887 -0.0058828 0.0072339 -0.0070233 0.0043775 -0.0063511 -0.001308 0.0087617 0.0035257 -0.0056235 0.0071651 -0.0047176 0.0049929 -0.0077994 -0.0001529 0.0042128 0.00056887 0.0039899 0.0096943 -0.0063248 -0.0021354 0.0010049 0.0054349 0.0066372 0.0018054 -0.0015293 -0.0098676 -0.0019213 -0.00064278 -0.0016932 
推荐 0.0053561 0.0096476 -0.0080501 0.00082991 -0.0058108 0.0014969 -0.0095359 -0.003651 -0.0066379 -0.0018388 0.0049121 -0.0023244 -0.0081217 0.002389 0.00092022 -0.006323 -0.0014525 -0.007058 -0.0016052 -0.0083068 -0.0099826 0.0083495 0.0045492 0.0092762 0.0064245 0.0057853 0.0042113 0.0098712 0.0082162 -0.0094935 -0.0030099 -0.005433 0.0070717 -0.0053423 -0.0071486 -0.0094326 -0.0089463 0.002071 0.0062779 -0.0072919 -0.00046569 -0.0094518 -0.0029684 0.0036129 -0.0063585 0.0093063 -0.0012589 0.004226 0.0026862 0.0029404 0.00466 -0.0048601 -0.0026003 -0.0019748 -0.007195 -0.0075639 0.0082634 0.0086666 -0.00064806 -0.0030312 0.0014709 0.0025783 0.008034 0.0083502 -0.005649 -0.0091855 -0.0060179 -0.0095756 0.0057522 0.0018611 0.0086692 0.0074748 0.007579 0.0053826 0.0080156 0.0069259 -0.0019089 0.0072715 -0.00049621 -0.0014559 0.001923 -0.0041841 -0.0027134 0.009556 0.0008741 -0.0019867 -0.0058058 -0.008245 0.0090163 0.007523 -0.0098876 -0.0072248 -0.0056708 0.0020624 -0.0086145 -0.0059279 0.0074848 -0.008624 -0.0029698 0.0096476 
热榜 0.0011726 0.00039912 0.00081309 0.0080085 -0.0011593 -0.0041324 -0.0047848 -0.0082941 -0.005092 0.006503 0.0090327 0.0012369 0.0065763 0.0090336 -0.0057344 -0.0014457 -0.0024477 0.0067472 0.0061993 0.0050982 -0.0031526 -0.0060418 -0.005681 -8.6557e-05 -0.0086866 -0.0061746 0.0044224 0.0029925 -0.0017205 0.0020008 -0.0047769 -0.0011391 -0.0037443 0.0030001 -0.0090654 0.0038895 0.0055541 -0.0048788 -7.1812e-05 0.0074113 0.0092383 0.0055128 0.0003244 -0.00011397 0.001048 0.0094432 0.0033587 -0.0066434 -0.0079775 -0.0067103 0.0015984 -0.0094825 -0.0097641 -0.0093452 -0.0072649 0.0098252 0.0064411 0.0083768 0.0071023 -0.0034789 0.0060111 -0.0075036 -0.0010796 0.0045758 -0.006379 -0.00062041 -0.0069247 0.0085173 -0.00045648 0.009174 0.0011075 -0.0016609 0.00062655 -0.0093316 0.0099404 -0.0039375 -0.0064065 -0.0042312 -0.0023957 0.0064607 0.001017 0.007803 0.0016604 0.0097837 0.0024528 0.0039823 0.002103 -0.0012772 -0.0018032 -0.00058411 0.0073458 0.0068171 -0.0017315 -0.0069658 -0.0039672 0.0031826 -0.00035116 -0.0033289 0.0033337 0.0091234 
that 0.0052308 0.0057561 -0.00085592 0.0041332 -0.0012064 -0.0056702 0.0035002 -0.0069769 -0.007696 0.0051459 -0.00016727 -0.0040765 -0.0017785 0.0054039 -0.0057332 0.0035273 0.0064863 0.0079792 -0.0052553 -0.0072337 0.0064673 -0.0012096 0.0081898 -0.00032958 -0.0025084 0.0067528 0.0018622 -0.0036424 -0.0063296 -0.00034099 -0.0084219 0.0023269 0.0044099 -0.00020707 -0.0056751 0.0041432 -0.00090049 0.0082449 -0.0068243 0.0020487 -0.0045284 0.0079638 0.0093049 -0.0051213 -0.00077065 0.0070472 0.0021394 0.0040173 -0.0041698 0.0076192 0.0059311 0.0077678 0.0016526 -0.0078592 -0.00034825 0.0052069 -0.0057277 0.0077823 -0.0001 -0.0029346 0.0031399 0.0094804 0.004204 -0.0040579 0.0087792 4.1329e-05 -0.0036119 0.0026365 -0.0077668 -0.0064984 0.0035045 0.0019959 0.0027967 0.0094152 0.0017526 0.0080573 0.0011144 -0.0069386 -0.0072475 0.0069254 0.0071478 -0.0051501 0.00072887 0.0046103 0.0082602 0.0078083 -0.0064463 -0.0083061 -0.0038194 -0.0072189 -0.0011877 0.0058474 0.0057399 0.0080801 0.0063091 0.0024181 0.0084496 -0.0067376 0.0025888 0.0069499 
专栏 0.0048391 -0.0089579 0.0065567 -0.0076632 0.0089537 -0.0085761 0.0077325 -0.0090349 0.0019984 0.0008757 -0.0038376 -0.0065627 -0.003762 -0.0054439 0.0028714 0.0010724 -0.0072298 0.0079706 -0.0026638 0.0022039 0.0087699 -0.0073415 0.0027593 0.008195 -0.0059034 -0.0099246 -0.0026136 0.0062898 -0.0058258 -0.0092271 0.0045597 -0.0041079 -0.0069533 0.00098371 0.0083345 0.0019035 0.0044832 -0.0048494 -0.0085593 0.0076737 0.0089078 0.0053127 0.0067603 -0.0035638 0.001828 -0.003879 0.0063022 -0.0064583 0.0029675 -0.0075127 0.0075665 -0.0028468 -0.002213 0.0009219 0.0050803 0.0074033 -0.00060879 -0.0092734 -0.0063558 -0.0073609 -0.0034569 0.0058768 0.0022522 -0.0098162 -0.0020339 -0.009051 0.0075851 -0.0033728 0.0063984 0.00242 -0.0031665 0.0023109 0.0070948 -0.0017297 0.0070226 0.0029462 -0.0013524 -0.0064001 0.00089048 0.0019856 0.0080369 -0.0049054 -0.001534 0.0065325 -0.0047541 -0.0093133 -0.003762 -0.0083748 -0.00556 0.0081722 0.00015998 -0.0083121 0.0042689 -0.0045199 0.00067584 -0.0081195 0.0004379 -0.0049096 0.0021053 0.0003151 
圈子 -0.0013654 0.0057421 -0.00076934 -0.0089523 0.0076243 -0.00072082 -0.00018171 8.5479e-05 -0.0048992 0.00023681 -0.00074905 0.00041769 0.0059401 -0.0034093 -0.0082781 -0.0012081 -0.0016027 0.0048125 -0.005007 0.0068266 0.0012297 -0.0011061 0.0069045 0.0097406 0.0034134 -0.0092808 -0.0088933 -0.0096804 0.004378 0.0042837 0.0027334 -0.005303 -0.0094451 -0.00074211 -0.0072203 0.0076872 0.0057355 -0.0014283 0.0014597 -0.0071104 -0.0032017 0.001332 0.0051555 0.0018326 0.0094953 -0.0051534 -0.0052078 -0.0090679 0.0095776 0.0073391 0.0040535 0.0022108 0.0069083 -0.0013421 -0.0065002 0.0031947 -0.0088165 -0.0068386 -0.0064669 -0.002508 0.0045888 -0.0023771 -0.0081799 0.0053249 -0.0075564 0.0045007 -0.003651 -0.0048702 0.0029398 0.0094115 0.003131 -0.0032001 -0.0038856 0.0039706 -0.0069908 0.0073913 0.0039233 -0.0046533 0.0011587 0.0032263 0.0092867 -0.00033982 0.0038459 -0.0029724 -0.0095863 -0.0025621 -0.0082531 -0.0083785 -0.0023221 0.0006056 0.0020933 0.0059178 -0.0066068 0.0088113 0.0072549 0.0077963 -0.0043095 -0.0016658 0.0058436 0.003196 
New 0.0039045 -0.0098715 -0.0039825 -0.0097635 -0.0044498 -0.0074061 0.0017796 -0.00662 0.0029878 -0.0064277 -0.0092891 -0.0092037 -0.0063776 -0.0052288 -0.0096817 -0.0051853 0.0086061 0.0071593 0.0058928 -0.0057289 -0.0055045 -0.0058235 0.0086984 -0.0058956 0.0091968 -0.0016141 -0.0072364 -0.0083081 -0.003628 -0.0046063 0.0082317 0.008832 0.0062627 -0.0060551 -0.0041863 -0.0051272 -0.0051079 0.0083254 0.0080535 0.002535 -0.00048062 -0.0096324 0.0032594 -0.0070887 -0.0035396 0.0023068 0.0041062 -0.0046623 -0.0037746 0.0015758 0.0071336 0.0046324 -0.0094144 -0.0011371 0.005698 0.0013266 0.0035396 -0.0058747 0.0024629 0.0077158 -0.0095337 0.0095469 0.0058933 -0.0022358 -0.0044353 0.0053361 -0.0093305 0.0051715 0.0011501 0.0008796 0.0099557 0.0069234 0.005888 0.0065572 0.0046062 0.0015496 0.0013913 0.0072626 0.0078257 -0.001068 -0.0099528 0.0077777 0.0094414 0.0023535 0.0052286 -0.0023052 0.002318 -0.0034945 -0.0056731 0.0040329 0.0059742 0.0027313 -0.0005507 0.0095647 -0.0061973 0.004076 -0.0085724 -0.0072573 0.0050574 0.00026468 
or 0.0093902 0.0040618 -0.0072546 0.0014898 0.0081773 -0.0042829 0.0016096 0.008963 0.0069464 0.0072468 -0.0037613 -0.0097781 -0.0067907 0.00066689 0.00043156 -0.00010961 -0.0056373 0.0015845 -0.0041827 -0.0073801 -0.0080499 0.0067407 0.00071748 0.001173 0.0091187 0.0044322 0.0019436 -0.0094401 -0.00898 -0.0008954 0.0015391 -3.981e-05 7.3338e-05 -0.0028384 0.0073271 -0.00076144 0.0074471 -0.00032269 0.0026979 0.001408 -0.00080059 -0.0022577 0.0063282 -0.0039435 -0.0088455 0.00069795 -0.0044095 -0.0076364 0.0086734 0.0066987 -0.00985 0.00034372 0.002454 0.006084 -0.0015142 0.0087803 1.2777e-05 -0.001466 -0.00063534 0.0028346 -0.0017826 0.0038623 0.0043812 0.0006837 0.0084243 0.0045007 -0.0096716 -0.0076849 -0.0034461 -0.0013502 0.0021068 -0.0016681 -0.0078583 0.0020778 -0.0042815 0.0013871 6.7555e-05 0.0056617 0.0049126 0.0034742 -0.00085907 0.0085826 0.0091129 0.0098639 0.0050721 0.0084205 0.0025943 0.00067884 -0.0055901 -0.0006427 0.0036216 0.0084505 -0.0082963 0.0073523 -0.0087618 0.0018439 -0.0025554 -0.0031712 0.0032549 -0.0068106 
知学堂 0.0090025 0.0040219 -0.0028504 -0.0034857 0.0047378 0.0025602 0.0077512 0.0011185 0.0060542 -0.0056056 -0.0012031 0.0040542 0.003642 -0.0091746 -0.006339 0.0030829 0.0052652 -0.0054662 0.0061557 -0.0013173 0.0046695 -2.008e-05 0.0018974 0.0094857 0.0014882 0.002525 0.00072323 0.0080034 -0.003943 -0.0044881 0.0047902 0.0077945 -0.0025471 -0.0024663 0.0032308 0.0047577 0.0014275 -0.0089983 -0.0065083 0.0053138 -0.0086782 0.0070617 0.0054827 -0.0036446 -0.0067319 0.0019995 0.0061518 0.0083149 -0.0057713 -0.0041034 -0.0068915 0.0057154 0.0010304 0.0073922 -0.0086654 0.0076091 0.0028948 -0.0010848 0.0010982 0.0021379 0.003642 0.0043678 0.0088373 -0.0045067 0.0017286 0.009105 0.0013638 0.00071227 -0.0069371 -0.0097871 -0.0035186 -0.008752 0.0076583 0.0038914 0.0023874 0.0013594 -0.0013586 -0.0060181 0.002965 0.0070202 -0.001354 0.0083857 -0.005707 0.0028949 0.0066639 -0.0076737 -0.00082909 0.0051356 0.0082415 -0.0037769 -0.0079085 0.0064313 -0.0041227 0.0030664 0.0024395 0.0088487 0.0087915 0.00096729 0.0075785 -0.0072583 
​ -0.0026903 0.00062754 0.0024427 -0.0035019 0.0023245 -0.00062191 -0.0071865 0.0086583 0.0044395 -0.0064896 0.0045482 0.00036452 -0.0078149 0.0061569 0.009531 0.0036115 0.0090356 0.0070581 -0.0034532 -0.00058848 -0.0058197 0.0026519 0.0022707 -0.0087122 0.008378 -0.009931 0.0051526 0.00016095 -0.0070358 -0.0053596 -0.0053343 0.0060123 -0.0063063 0.0025369 0.0056669 -0.0059175 -0.008549 0.0074022 0.00033698 -0.00073623 -0.0071532 0.0097998 -0.0090639 -0.003868 0.0076889 0.0070934 0.0080928 -0.0077391 -0.0084579 0.0070521 0.0083925 -0.0089028 -0.0090198 0.00078951 0.0050482 -0.0067503 0.0012739 0.0010112 0.0067754 0.0059239 0.0031104 -0.0019271 -0.0079643 -0.0068932 0.0019174 0.0052388 0.0070273 0.0046597 -0.0006681 -0.0021678 -0.0083773 -0.0053943 -0.0016323 0.00278 -0.0061255 -0.0019233 -0.0063118 0.0073008 -0.0069192 -0.0070538 -0.0049496 0.00018977 0.00038819 0.0075785 0.0087914 -0.0099184 0.0065514 0.0050636 0.0022708 -0.0022786 0.0094003 -0.0088353 0.007416 -0.0086674 0.0077803 -0.0008091 0.0093335 -0.0098179 -0.0080589 0.0068855 
直答 0.0018952 -0.0029116 -0.0076025 0.0052478 -0.0008888 -0.0085361 -0.0083242 -0.0053013 0.0073141 0.0066579 -0.0065789 0.0062351 0.00037674 -0.0021517 -0.0098787 -0.006813 0.002532 -0.0089997 0.0082116 0.00017331 -0.0012878 -0.0021794 -0.0069936 0.0036296 0.0072817 -0.002049 6.9661e-05 -0.00785 -0.0081365 -0.00016009 -0.0075752 -0.0069098 0.0060772 0.0076696 -0.00065958 0.0006027 0.0081662 -0.0052236 0.0045399 0.0060137 0.0073484 -0.0098828 -0.0054432 -0.0079795 -0.0096744 0.004272 -0.0016683 -0.0011486 -0.0041138 0.0075717 -0.0098059 0.0055431 0.009031 0.0039868 0.004192 0.0058729 0.0039469 -0.0031925 -0.00053956 0.0037269 0.0015043 -0.0023272 -0.004399 -0.0019454 0.00014491 -0.0042875 0.0098084 0.0034869 -0.0031982 0.003647 0.0024074 -0.0027538 -0.0086962 0.0054927 0.0056751 -0.004964 0.001191 0.0097566 -0.0033767 0.0057765 0.0049969 0.0085035 -0.0074182 0.0029727 0.0012138 -0.0023934 -0.0018216 -0.0095633 0.0092092 0.0024025 0.0069652 -0.0037621 -0.0092397 -0.0043018 0.0070405 0.00023576 -0.00233 0.0080769 -0.0080335 0.00050666 
切换模式 -0.0014844 -0.00082992 0.0089931 0.0097897 0.0043775 0.0060288 -0.009068 0.001141 0.0094937 0.006683 -0.0074366 -0.004708 0.0061282 -0.0042236 -0.00061287 -0.0085221 0.001489 0.0089814 0.0044349 -0.00064698 -0.0067753 -0.0054843 0.007278 0.0092053 0.0080492 0.0081442 0.007894 0.0013925 -0.0088279 0.0092132 0.0063953 0.0035099 -0.0024048 0.0074398 -0.0062593 -0.0032533 -0.0026269 -0.0033391 0.0089657 0.0065653 0.0090761 -0.002933 -0.0027544 0.0087625 -0.0044842 0.0093199 -0.0028012 -0.0029568 -0.00043617 -0.0067341 0.0050967 0.0048571 -0.0057539 0.0035278 -0.0034726 -0.0077229 0.0071404 -0.0095644 -0.00020855 -0.0035298 0.0073732 0.0051781 -0.0075159 0.0052857 0.0019192 0.0032484 0.0047731 0.0092621 0.0012341 0.0094652 -0.009042 0.0010173 -0.00042372 0.0060005 0.00044251 0.00099976 0.0082522 0.006456 -0.0051675 0.00034575 -0.0043568 -0.009799 0.0084149 -0.0048826 -0.0060071 0.0004642 0.003489 0.0021237 0.0030014 0.0017649 0.0077773 0.0035174 0.0053466 -0.005049 0.0072689 -0.0039223 -0.0088654 0.0078873 -0.007414 -0.0093419 
登录/注册 -0.008083 0.0054646 0.001623 -0.0063619 -0.0069161 0.00035406 0.0075745 0.0066481 0.0028035 0.0094787 -0.0035865 0.008319 -0.0042751 -0.0089674 0.0096349 0.0041427 -0.0030658 -0.0098138 0.0055973 -0.0028672 -0.0044284 0.0094208 -0.0001305 -0.0052455 -0.0030494 0.0091885 -0.0092055 -0.0060554 0.008935 0.0035483 -0.0050738 -0.0038357 -0.00018769 -0.0093269 0.0082368 0.0094445 0.0042081 0.0015557 -0.0027005 0.0061974 -0.0099733 0.007214 -0.0057599 -0.0045801 0.0040344 0.0096411 0.00041262 0.0031482 0.00037514 -0.00245 -0.0050521 -0.0091259 -0.0081838 0.0044695 -0.0052878 -0.0023732 -0.0081882 0.0034461 0.0038087 0.007806 -0.00076092 -0.0023963 0.0084112 -0.00065569 0.0027261 0.0021447 0.0045414 -0.0062825 -0.0088266 -0.0084226 0.0078348 0.0052936 0.0090404 0.0033525 0.0080708 0.0073531 0.0004465 -0.0055096 -0.0077561 0.0082731 0.0024605 -0.0090749 -0.0065637 -0.0060321 0.0039072 -0.0019703 0.0099499 -0.0093085 -0.0037114 -0.0036088 -0.0055884 -0.0075534 -0.0074117 0.0089609 0.0066657 -0.0084605 -0.0032002 -0.0079297 0.0058829 0.0042707 
5 -0.0034866 -0.00031294 -0.0045543 0.0025636 0.0014622 0.0033548 -0.0030499 -0.0070769 0.0083401 0.0058917 -0.0098401 0.0079361 -0.0094512 -0.0099253 0.0056018 0.0034784 -0.0074786 0.0056817 0.0017189 -0.0039659 -0.0047341 0.0073399 0.0079749 -0.0066145 -0.0019635 -0.0068604 0.0053797 -0.0071272 -0.0018218 -0.0092154 -0.004873 -0.004567 -0.0023576 -0.0049193 -0.0028542 0.0042399 0.0025494 0.0045644 0.0036403 0.0018724 0.00141 0.0032284 0.0038565 -0.00018469 -0.0011508 0.0030413 0.0007644 -0.0016496 -0.0095194 -0.0032928 -0.0079973 -0.0019693 0.0071227 -0.0082933 -0.0084824 -0.00016976 0.0093125 -0.0014703 0.0065591 -0.0010219 0.0087458 0.0025448 -0.0061009 -0.0068671 0.0084036 -0.0042938 -0.0077625 0.0089351 6.7168e-05 -0.0045072 -0.0039346 -0.0024103 -0.0028993 -0.0089316 -0.0053792 -0.0036651 0.0040761 0.00067405 0.0051612 0.00086015 0.0033608 0.0074552 0.0049137 -0.0056561 0.0093571 0.0056382 0.0084385 0.007513 -0.0073924 0.0019127 0.0084753 -0.0027795 -0.0056657 0.0044371 -0.0034597 -0.0065662 0.0093038 0.0062326 0.0093837 0.0041316 
秒后自动跳转至知乎首页 0.00167 0.0063322 0.0094021 0.0029431 0.0040935 -3.0103e-05 -0.0098685 -0.0021304 -0.0096924 -0.0076202 -0.0011178 0.0046727 0.0037809 0.0016942 0.0066806 -0.0080041 0.0061282 0.0011736 -0.0011087 -0.0048396 0.0020412 0.002947 -0.0014504 0.0069158 0.0046555 0.0038996 -0.00083755 0.0083706 -0.006174 -0.004785 -0.0069167 0.00657 -0.0029749 0.0023408 -0.0095367 -0.00079327 -0.0092293 -4.5204e-05 -0.0087765 0.0013077 -0.0092248 -0.002026 0.00030453 0.0060967 -0.0041714 -0.0020696 -0.0035212 -0.0060642 0.0027684 -0.0072123 -0.0074056 -0.0095009 0.0073511 0.0063467 -0.0094919 -0.0064073 -0.0014834 -0.0062731 0.0019601 0.0034023 -0.00087033 -0.0066981 -0.0044844 -0.0018873 0.005387 -0.0082714 0.0035655 -0.0066401 -0.0069511 -0.00061228 0.0032545 -0.0070224 0.0027797 0.00023274 -0.00054169 0.0019957 0.0037891 0.0063295 -0.0068499 0.0017712 0.0052493 -0.0042048 0.00038028 0.0065966 0.0079695 6.8084e-05 -0.0060247 -0.00229 -0.0062583 -0.0041766 0.0058197 0.0099928 0.0046352 -0.004309 0.0095854 8.9787e-05 0.0018332 0.0017333 0.0079403 -0.0084309 
去往首页 -0.0014237 0.0047548 0.0012189 0.007664 0.0071194 0.0063373 0.0025577 -0.0071979 0.0069494 0.0013241 -0.0020128 -0.0036 -0.0037819 -0.0065591 0.0038226 0.0040466 -0.0058979 0.0087936 -0.0090122 0.0048929 0.0013768 0.0050783 -0.0024524 -0.0060673 -0.0051085 -0.00093319 0.0062418 -0.0016951 -0.0033378 -0.0052609 0.00701 -0.0042329 0.00041184 -0.0090485 0.0048222 -0.0048966 -0.0054208 0.0066034 0.0088684 0.0037152 0.0012808 0.007729 -0.0020765 0.0069512 0.0034879 -0.0098754 -0.0042956 0.0038458 -0.0096949 0.0046606 -0.0057695 0.0064159 0.0017745 0.0016795 0.0071841 -0.0034796 -0.0058058 0.0052454 -0.0075867 0.0060821 -0.0051384 0.008878 -0.002041 -0.0059502 -0.0036297 0.0068359 -0.0028566 -0.0040896 -0.0083579 0.00082214 -0.00065426 -0.0046842 0.0030192 -0.005153 -0.0048037 -0.0010349 0.0056596 -0.0087428 0.0027311 0.0077235 0.00091415 0.009756 0.0038 -0.0029761 -0.0034009 0.0049206 -0.0073784 0.0076963 -0.0026342 -0.0026773 0.0080186 0.0038401 0.0051146 -0.002893 -0.0083227 -0.00176 -0.0022728 -0.004049 0.008194 0.010007 
find 0.0066963 0.0051443 -0.0092691 -0.002469 0.0053968 -0.0021833 0.00037175 0.0060587 -0.0026132 0.0069584 0.00026546 -0.00053817 -0.0062028 -0.0075483 0.007763 -0.00018134 0.0074445 -0.0014633 -0.0031604 0.0071535 0.00437 0.0095631 -0.0079938 0.0051056 -0.0073336 -0.0078472 -0.00027065 0.0068526 -0.0014823 0.0070175 0.0054908 -0.0059475 -0.0034008 -0.0056487 -0.00043102 -0.0087012 0.0039807 -0.0053213 -0.0016967 0.0047359 0.0087167 -0.0018821 -0.0018238 -0.0038013 -0.00099269 0.0045214 0.0052221 -0.0094319 -0.0060032 0.0005046 -0.0087941 -0.002225 -0.0090358 -0.0078761 0.0012736 -0.0071884 0.0096183 -0.0023737 0.0024494 0.0081062 0.00020769 -0.0029979 -0.0072412 -0.0022482 -0.00077348 -0.0027562 0.0071566 -0.0085942 0.0094004 0.0060016 0.0011337 0.0083653 0.0053905 -0.0070384 0.0052935 -0.00024336 -0.0082153 0.0047767 -0.0046969 0.0012322 0.0018806 -0.0086063 0.0027536 -0.0069717 0.0036483 -0.008239 -0.00049881 0.0076903 -0.00055971 0.0090764 0.0096656 -0.0098155 -0.00085981 -0.009055 -0.0055177 0.006088 -0.0091182 -0.0020076 -0.0032254 0.009856 
hello 0.0086221 -0.005578 -0.0097751 0.00074821 0.00032158 0.0013292 0.0030157 0.0030268 0.0018799 0.0056601 0.0088493 0.004042 -0.0044453 -0.0014313 0.0060576 -0.0036105 -0.0015245 0.0025276 -0.006351 0.009853 -0.0091866 -0.00017935 0.009268 5.4074e-06 0.008263 -0.0062757 0.0081601 0.0054104 -0.00022303 0.0056548 -0.0090896 -0.0092724 0.005832 -0.0026548 -0.00987 0.0071284 0.0086151 0.0058778 0.0040984 0.0061308 -0.0032048 0.0062627 0.0084952 -0.0037083 -0.0015134 0.0023414 -0.0063206 -0.0075949 0.010007 0.0080063 0.0078528 -0.0012747 0.0046164 -0.00429 -0.00095041 -0.0030741 0.0076672 0.0079399 -0.0026921 -0.0011719 0.0040871 0.00021491 0.00013344 -0.0052063 0.0094389 -0.0014205 -0.0092637 -0.0019702 0.009904 -0.002924 0.0053694 -0.0083237 0.00065005 0.0031365 -0.0068959 0.0070067 -0.0095331 0.0061784 0.0091501 0.0067748 0.00019548 0.0092277 -0.0066639 -0.0085892 -0.0018195 -0.0070302 -0.0092255 0.0029437 -0.003349 0.0063355 0.00021374 0.0052844 -0.0059358 -0.0053112 -0.0084078 -0.0026254 0.0076972 -0.0036355 0.0067627 -0.0069735 
world -0.010237 0.0065984 -0.0013817 0.0087371 0.0025439 0.0017146 -0.0011277 0.010353 0.0068535 -0.009199 0.0046707 -0.00073757 0.0046388 -0.00030129 -0.0041207 -0.0091908 -0.0079189 -0.0058597 0.0024697 -0.004544 0.0090524 -0.0092686 0.0043806 -0.0031243 -0.0027686 0.0083999 0.0078821 -0.0012431 -0.004296 -0.0038106 -0.00083741 -0.00014078 0.0051889 0.0061675 -0.0047161 -0.0052476 0.0072483 0.007519 0.0089921 0.0036437 -0.0070241 -0.0048684 0.0065209 0.0069123 -0.0016162 -0.0085801 -0.0025675 -0.0093135 0.0019512 -0.0064421 0.0078139 0.0054403 0.0053065 0.00052182 0.0063257 0.0034801 0.0064654 0.0049595 0.0092641 0.0071633 -0.0063972 0.0012819 0.0047207 0.0095044 -0.0085071 0.0061804 -0.002013 -0.0064401 0.008548 0.0047716 -0.010135 -0.0047831 -0.0015613 -0.006013 -0.0077355 -0.0017905 0.0051716 -0.0072271 0.0044962 0.0094564 -0.0081714 -0.0092693 -0.0089374 0.0057681 0.0074836 0.0017111 0.0002767 -0.0063425 -0.0002572 0.003019 0.0084548 -0.0075931 0.0034603 0.0079779 -0.0017171 0.0071291 0.0057068 0.0039749 0.0023717 -0.00016354 
Type 0.0037025 -0.0021279 -0.0013383 0.0097833 -0.0073904 -0.002373 -0.0011243 -0.0039852 0.0066043 -0.0059572 0.0004246 0.0076684 0.002555 -0.0039829 -0.008157 -0.0022251 0.0011856 0.00026191 0.0098845 0.0047688 0.0084849 0.0010273 -0.0093166 0.0097957 -0.0079297 0.0088594 -0.0033452 -0.0032838 -0.0059048 -0.0034486 -0.006739 -0.0088969 -0.0095089 -0.008732 -0.0044787 0.0096056 0.0028829 0.0067923 0.0042165 0.0030472 0.0020047 -0.0050648 0.0078471 -0.00080394 -0.0027808 0.0087786 -0.0038742 0.007037 0.0091145 0.0082968 -0.0078307 0.0066426 -0.0087858 -0.0086741 0.0098222 0.0021371 -0.0028061 0.0015077 0.0052519 0.0029319 -0.008007 0.0055966 -0.0067505 0.0095359 -0.0051144 -0.0020268 -0.0058041 0.00748 0.0063771 0.0088378 0.0047163 0.0036222 0.0065737 -0.003937 0.0020457 -0.0036217 0.0093517 0.0034075 -0.0033493 0.0082011 0.00046036 0.0015111 0.0082795 -0.0017191 0.0075759 -0.0013325 -0.0029767 -0.0039359 -0.0053751 0.00027857 0.0096912 0.0018566 0.0064561 0.00082625 -0.0014505 -0.00296 0.0029589 0.0059451 -0.00051606 -0.004453 
Report 0.0029407 0.0075667 0.0063993 0.0093209 0.0049849 0.003494 -0.006267 0.0027172 -0.0026502 0.0093395 -0.0068654 -0.0053695 -0.001171 0.0095852 -0.0013683 -0.0017102 0.0082305 0.0064985 -0.0036343 -0.0059223 0.00094555 0.0059357 0.0086232 -0.00022854 0.0084503 0.0040863 -0.0057516 -0.0019741 0.0016732 0.0052253 0.0018879 0.0055685 -0.0066941 -0.0057348 0.0093263 0.00039858 -0.0014615 0.0055788 0.0098031 0.0041405 -0.0037292 0.0089432 -0.0015931 0.0018993 0.007554 -0.0099055 0.0027699 -0.0047266 -0.0055246 -0.0030105 -0.0030174 -0.0060306 -0.0044246 0.0088306 -0.0065237 0.0061243 -0.0077708 -0.0038915 -0.0044801 0.0038568 0.0042805 -0.00029632 -0.0085703 -0.00079906 0.0065168 0.005614 -0.0028926 -0.0066009 0.0023472 -0.004429 0.0076423 0.0016949 0.0014984 0.006159 0.0026161 -0.0051609 0.0069204 -0.0034485 -0.0048335 0.00388 -0.00033696 -0.0079313 0.003077 -0.0052988 0.0078591 -0.0071319 0.0055186 -0.0080148 -0.0059716 -0.0082925 0.0024032 -0.0031068 0.0025201 -0.00084091 -0.0042199 -0.0078839 -0.0044709 0.0059234 0.0046577 -0.0055641 
Message 0.0075474 -0.0047272 -0.0044579 0.0063464 -0.0018239 -0.009873 0.0048037 0.0026092 -0.0016063 -0.008413 -0.0009021 0.0017306 -0.0038628 -0.0080155 0.0066429 -0.0061969 -0.00095638 0.0003207 -0.0070904 0.0052935 0.0078239 0.00062706 0.0035553 0.002896 -0.0063696 0.002215 0.0025418 -0.0029136 -0.0040149 -0.0050534 0.0051973 0.0043744 0.0055933 -0.0081978 0.00021188 0.0047618 0.0087831 -0.008508 -0.0026997 -0.0047168 0.0030687 0.0016962 -0.0054894 -0.009588 0.0059095 -0.0080825 0.0051454 0.0032569 0.0028243 -0.0052113 0.0036213 -0.0054139 0.0041506 0.0065297 0.0039866 -0.0040954 0.007302 -0.0028303 -0.0081757 -0.0060182 0.0060329 0.00017982 0.0068606 0.0030336 0.00047183 -0.008618 0.0024658 -0.0067152 -0.0011366 0.0063504 -0.0096554 -0.0066363 -0.0014254 0.000955 -0.0086682 -0.006226 -0.0090702 0.00024596 -0.0058059 -0.0094154 0.0072539 0.0014686 0.008425 -0.0078772 0.0052003 0.0085786 0.0096902 -0.009774 0.00023326 -0.0095703 0.0085802 -0.0091461 0.0019243 0.0032282 -0.006519 0.0075551 0.0067834 -0.00039279 -2.8595e-05 0.0036814 
found -0.0075329 0.0077434 0.0038326 0.0094376 -0.0031903 -0.0085856 -0.0077557 -0.009331 -0.0011987 -0.0013913 -0.0045548 -0.0006596 -0.0088464 0.0085328 -0.0044668 0.0053704 0.0015484 0.007163 -0.0070524 -0.0042748 0.0019041 -0.0051666 -0.0034481 0.0057288 -0.0059052 0.0084584 0.0033304 0.0016329 0.0093036 0.0053181 0.0096502 0.0014297 0.0046052 -0.0098855 -0.0088297 0.0080517 0.0020697 0.00056582 0.0061926 0.0031165 -0.0094851 0.0082897 -0.0018105 -0.003143 -0.00074294 -0.004606 -0.0089095 -0.0060206 0.0076674 0.0089256 -0.0070621 -0.0031327 0.00066549 -0.0055603 -0.0047861 -0.0045536 0.0043712 -0.00067061 0.0045652 -0.0068449 0.0087164 -0.0081018 0.0041674 -0.0077304 0.005707 -0.0069766 0.0080494 0.0078677 0.0034205 -0.0014339 -0.0088142 0.0028462 -0.0040289 -0.0070844 -0.00482 0.0011548 -0.0099947 -0.0053577 0.0077106 0.0030526 -0.0056792 -0.0047884 0.0055004 -0.0045614 -0.0053288 0.004557 -0.0093382 0.00096249 -0.0022435 0.0012131 -0.0086879 0.0014101 -0.0086229 0.0083908 0.00059042 -0.0065995 0.0075493 0.0050117 -0.0072004 -0.0074999 
Description -0.0021255 0.0022704 0.0077441 -0.0028559 0.0035803 0.0046538 0.0048622 0.0029853 -0.0038103 -0.0055242 0.0068848 -0.0070913 0.0034968 -0.0030826 -0.0098495 -0.0014752 0.0036289 0.0070867 0.0016187 0.0068886 -0.0033339 -0.0043543 -0.0017663 -0.0048835 0.0062837 -0.0034862 -0.00537 0.0093427 -0.0040627 0.0052322 -0.0049597 -0.0043325 0.0060405 -0.0045269 -0.0024828 0.0097824 0.0036929 0.0022527 -0.0081802 -0.0039918 0.0058005 0.0091567 0.0078176 0.0086259 -0.00028091 -0.003144 -0.0088488 -0.0084476 0.0045354 0.0089948 0.0048811 -0.0054166 0.0077694 -0.0010337 -0.0044914 0.0052233 0.0099402 -0.0098179 -0.0037676 0.0006401 -0.0099528 0.0061039 0.0039596 0.00159 0.0016331 -0.006527 -0.0034514 -0.0035853 -0.0074437 0.0045639 -0.0070226 0.00727 -0.0034308 -0.0057661 -0.0033614 0.0046444 -0.0074548 0.0048571 0.0013347 0.0029228 -0.0010671 0.0046075 -0.00020163 -0.0048794 -0.0081991 -0.0049882 -0.0096626 0.0032001 -0.00032864 0.00017022 -0.0090604 -0.004603 0.00062688 0.0086835 0.00327 0.0022952 -0.0073787 0.00025984 0.0051756 -0.00040155 
The 0.0034187 -0.00071587 -0.0012259 -0.00046524 -0.0065397 0.0052455 0.0059075 -0.0090197 0.0067918 -0.0090474 0.00017273 -0.0025904 -0.0023647 -0.0074689 0.0053059 -0.0038287 -0.0044398 -0.0030571 -0.0077657 0.0099463 -0.0088989 0.0035572 -0.0064145 -0.0043877 0.0020133 0.0087148 -0.00024428 -0.0058723 0.0076886 0.0042104 -0.0097147 0.0031315 0.006794 -0.0018679 -0.0001291 -0.0071476 -0.0024849 -5.3672e-05 0.0063902 0.00247 0.0093725 -0.0057565 -0.0048349 -0.0012907 -0.0027606 -0.0096126 -0.0044295 -0.0059482 0.0014759 -0.0048745 0.0011623 0.0095596 0.0087316 0.001137 -1.894e-05 0.0099369 0.007618 0.0023943 0.0011095 -0.0014149 0.0059838 -0.0074759 -0.0065774 -0.0002565 0.0063738 -0.0077667 -0.0029589 -0.0063022 0.0027039 -0.0086161 0.0088543 -0.0027108 -0.0020015 0.00036601 -0.0078338 -0.0042708 -0.0069537 0.0019741 -0.0068147 -0.0094362 0.0082423 -0.00047499 0.0074814 0.0064247 -0.0042506 0.001998 0.0011119 0.0045048 0.0081227 -0.0023482 -0.0095375 0.0046114 0.0039113 -0.0085142 -0.00356 0.0028697 0.0017028 -0.007083 0.0032598 0.0052203 
origin 0.00067911 0.0024263 -0.0091575 0.0040612 0.0050903 -0.0081026 0.0037916 0.0065304 0.0056384 -0.0053172 -0.004138 -0.0039069 0.0080796 -0.0018021 0.0031304 -0.0091766 0.0050658 -0.0032299 0.0011354 0.0017516 0.0023203 0.0048604 -0.0028756 -0.0038564 0.0056971 -0.004024 -0.0017903 -0.0029472 0.0024431 0.0052937 -0.0095035 0.0025628 0.009319 -0.0096005 -0.0026188 0.00077696 -0.0074354 0.005635 -0.0055685 0.0012468 -0.0011421 9.3381e-05 -0.0020303 0.0096517 -0.0094941 -0.0065484 -0.0051337 0.0037487 -0.0046172 0.0053281 0.0063011 -0.0028486 -0.0041326 -0.00069879 0.0066257 -0.0051095 -0.0048722 -0.0080591 0.0077261 0.0097946 -0.0049049 -0.0028321 -0.0075502 -0.0074626 -0.0058551 0.0090781 -0.0089587 -0.0084826 -0.008093 0.0058967 -0.0063173 -0.001255 -0.0096818 -0.007138 0.006753 0.0029966 -0.002068 -0.00074984 -0.0092533 0.0047575 0.0027798 -0.0014151 0.0017445 0.0013963 -0.0084739 -0.0035706 0.0049711 0.0026995 -0.0097029 -0.0088953 0.00052722 -0.0018456 0.0038619 0.0083158 -0.00078746 -0.0012052 -0.0066991 0.0048346 0.0064442 0.0064958 
server 0.007323 0.0021023 -0.0035044 -0.002785 0.0071475 9.9271e-05 -0.008457 -0.0071938 -0.0047739 -0.0018423 0.0081441 -0.0020257 0.006501 0.0019534 -0.0026064 -0.0078582 0.002607 -0.0095289 0.0031147 -0.003836 0.0099891 -0.005348 0.001668 -0.0092472 0.0059334 0.0048903 -0.0083936 -0.0060417 -0.0022585 0.0098158 -0.0027565 0.0069809 0.0067311 -0.0011552 0.00138 0.0056479 -0.00027197 0.004303 -0.00063343 0.0028723 -0.0020723 -0.00092273 0.0085669 -0.0045246 0.00083628 0.0066856 0.0047775 0.0056567 -0.0086465 0.0086618 -0.0022016 -0.0019726 0.0046088 0.0073562 0.0067281 0.0091458 -0.0035402 0.005249 0.00042886 0.005165 -0.0061971 0.002825 -0.0068836 0.0057337 -0.007132 -0.0098501 -0.0060429 0.0013913 0.0064582 -0.0014812 0.0039731 -0.0029715 -0.009489 0.0023279 0.0060994 -0.0089046 0.0038806 -0.004624 -0.0066188 0.0045093 0.00080446 -0.0076086 0.0091653 -0.0082916 -0.0090971 -0.0024204 0.0079801 -0.0017299 0.00032764 0.0091129 -0.0089451 -0.006572 0.0081972 0.0087757 0.0052457 -0.009448 -0.0080803 -0.0082666 -0.0081424 0.0028289 
did 0.0052538 -0.0063526 0.0052832 0.0038132 -0.004771 -0.0011072 -0.0023522 -0.001213 0.0082998 -0.0077432 -0.00077738 0.0053605 0.0031721 -0.0040642 -0.0036778 -0.006448 -0.0031414 -0.0016242 -0.0045301 -0.0020235 0.0053669 -0.0047925 0.0030041 0.0085575 -0.0044523 0.0049529 0.0045246 0.00049164 0.00034377 0.0057251 0.00039627 0.0072612 0.00332 0.0094401 -0.0051184 0.0077386 -0.0055943 0.0019466 -0.0084346 -0.0059724 -0.0098829 -0.0066229 0.0048061 -0.00086606 -0.0022656 0.0050145 -0.0003557 -0.0063957 0.0019258 -0.0061622 -0.0083284 0.0076482 0.007247 -0.0078965 0.0073791 0.0038246 0.0095898 0.0045467 0.0016281 0.002618 -0.0037908 -0.002626 0.0094553 0.0026735 -0.0053927 -0.0016814 -0.00069554 -0.0092056 0.0036004 -0.0032893 -0.00028839 0.00090657 -0.0086365 0.0049676 0.0098048 -0.0020761 -0.0065305 -0.0033079 0.0034256 0.0033463 0.0036147 -0.0073398 0.00036238 -0.0063135 0.0089663 -0.00033779 -0.00046512 -0.0081314 0.0092157 0.0046576 -0.001837 -0.0055175 0.0038393 0.0072801 -0.0029496 -0.0036587 -0.0076289 -0.0036465 -0.0029157 0.004989 
disclose -0.00083314 0.0051901 -0.0063342 0.00069274 -0.0051335 -0.00098918 0.0026533 0.00024936 -0.0040899 0.0087754 -0.0037878 0.0035723 0.0021854 -0.0020843 -0.0040368 0.0047928 -0.002141 0.00067314 -0.0076317 -0.0035393 0.0085283 0.0093101 -0.0023802 0.0040405 -0.0091947 0.0048911 -0.0065337 -0.0067299 0.0053406 -0.0087985 -0.0057933 0.0018279 -0.0031927 0.0076105 0.0044862 0.0056078 0.0014222 0.0067271 0.0016747 -0.003642 -0.0022171 -0.009761 0.0019777 -0.0095079 0.0010536 -0.0047859 -0.0063806 -0.0031786 -0.0040055 -0.0028962 -0.0085059 -0.008403 -0.0027101 -0.00040659 -0.0093405 -0.00038908 0.007208 0.0043038 0.0017658 -0.0014385 -0.0010029 -0.0016842 0.007406 -0.0018392 0.0083736 0.0067489 -0.0044239 -0.0065746 0.002787 0.0008303 0.0064649 0.0076193 0.0025852 -0.0020819 0.0016165 -0.00026545 -0.00014191 0.0066724 0.0061224 -0.0049843 0.0090569 -0.0092686 -0.0034299 -0.0041561 0.0028965 -0.0054173 -0.001837 0.00067981 0.0025112 -0.0068692 0.0043232 -0.00067434 -0.008806 0.00769 0.0014469 -0.007395 -0.0029167 -0.0017187 -0.005056 0.0054367 
a -0.0090781 0.0090382 0.0018122 0.0055715 0.0011088 0.00068169 -0.0087059 0.00033282 -0.0076693 -0.0082884 0.0098616 0.0038193 0.0017327 0.0030889 -0.00084295 -0.0068907 -0.0072051 0.0045049 0.0057022 0.0078721 -0.0099508 0.0055453 0.0088109 -0.0053076 0.00043512 0.0054049 -0.0053917 0.0030381 -0.0013613 -0.0019438 0.0019686 -0.0045449 0.0089194 0.0091171 -0.0024182 -0.0018327 -0.0071036 -0.004456 0.00010219 -0.0095046 0.0087683 -0.00188 -0.0045389 -0.0070142 0.0063447 0.0014482 -0.0067514 0.0079502 0.0038972 0.0044833 0.002497 -0.0095609 -0.0035675 -0.0086435 -0.0091353 0.0097763 -0.001281 -0.0068412 0.0016241 -0.0047547 -0.0060953 0.0034743 -0.0085597 -0.0076784 0.0082364 -0.0011463 -0.0060865 -0.008866 -0.0079534 0.0082323 -0.0069202 0.009906 -0.009828 0.0043338 0.0046512 0.0084735 0.0049223 0.0093653 -0.0046026 -0.0072041 0.0084111 0.0054873 0.0026865 0.0021248 -0.0076982 -0.0086162 0.0011638 -0.0052802 0.0073699 0.0033916 -0.0096825 -0.0092869 -0.0050878 0.0021574 0.006994 0.0075422 -0.0099771 0.0070741 0.0087387 -0.0043213 
current 0.0064326 -0.0022912 -0.0012192 -0.0086189 0.0068463 -0.00099666 -0.0093696 -0.0053821 0.0031198 0.0072896 -0.0058171 0.0066493 -0.0057391 -0.0058589 0.0014113 -0.007218 -0.009859 0.0013188 -0.00015245 -0.0030479 0.0082625 0.0071683 0.0081972 0.009725 0.00013875 0.0068452 -0.0048288 -0.0086383 -0.0011926 0.0087076 -0.0027436 0.0069056 -0.0065901 0.0046967 -0.0075295 -0.0063072 0.0048976 0.0036777 -0.0034971 -0.0036292 0.0079789 -0.0019743 0.0042418 0.0030476 -0.00057133 -0.0048533 0.0055624 -0.0077016 0.0021273 -0.0012521 0.0076659 -0.0018872 -0.002671 -0.008298 -0.0026552 -0.0038528 0.00052634 -0.00094733 0.0022917 0.0073846 -0.00065474 0.0099226 -0.0061959 0.0089233 -0.0070436 -0.0049727 -0.0085047 0.0060484 0.0021569 0.0010668 -0.00041824 0.0055443 0.0049655 0.0050958 -0.0035493 -0.00049565 -0.0070712 -0.0079751 -0.0030013 0.00057339 -0.0073383 0.0041195 0.0010167 0.002732 -0.0034882 -0.006032 0.0022541 0.0066342 -0.0014822 0.0017725 -0.0037269 0.0014917 -0.0079164 0.0047486 -0.00728 0.0051702 -0.0042062 0.0078611 -0.0077855 -0.0057192 
representation -0.0027268 -0.0013199 0.0077003 0.0010296 -0.0065634 0.0082195 -0.0073172 -0.0085856 -0.0038437 -0.0096217 0.002913 -0.0075316 0.0052733 -0.0022426 -0.0052806 -0.0072711 0.0072951 -0.0020566 -0.0040192 0.0040486 0.0072468 0.0067612 -0.001486 -0.0042249 0.0033058 -0.0053321 0.0083142 0.00029831 0.006468 0.0024365 -0.0057969 0.0028551 0.0017753 -0.0038793 -0.0051447 0.0077127 0.0076241 -0.0080068 0.0051445 -0.0045506 0.0045932 -0.008763 -0.0051719 0.0030152 -0.0053979 0.0087826 -0.0043128 0.007378 -0.0011019 -0.0030201 -0.00083149 -0.0092667 -0.0055846 0.0023649 0.0090848 -0.0027955 0.0080671 0.0041014 0.0030739 0.0088423 -0.0016332 -0.0047335 -0.0054494 -0.0074724 0.0067361 -0.0098848 0.00035412 -0.0096365 -0.0040286 -0.00067616 -0.00066723 0.00198 -0.0025529 -0.0048979 0.0013229 -0.001846 -0.0070241 0.004826 -0.0093107 0.0084733 -0.0042882 0.0095957 -0.0080764 0.0022854 0.0053533 0.0041558 0.0061361 -0.0054738 -0.0068553 0.0040835 0.0068412 -0.0077447 -0.0080169 -0.0084567 0.00014716 -0.0035487 -0.007448 -0.0079468 0.0035689 0.0018527 
for -0.0037899 0.0060902 -0.0059029 -0.0037434 -0.0061858 0.00048696 0.0040098 -0.00069078 0.0086943 0.0056168 -0.0068044 -0.00081613 0.006692 -0.0044655 -0.0023064 0.0061636 -0.0026112 0.0045812 -0.0037875 -0.0040994 5.5741e-05 -0.0096307 -0.0092956 0.0051424 0.0075607 -0.0098214 0.0030752 0.00015429 -0.0054734 0.0054332 0.0088208 -0.0076781 0.0048528 -0.0073469 0.0055369 0.008397 0.0087083 -0.0095772 -0.0061303 0.0037371 -0.0062357 0.0041588 -0.0052624 0.00051464 0.0081755 -0.0070458 -0.0065883 -0.00054128 0.0046473 0.0032749 -0.0030856 0.0024745 -0.0092014 0.0057477 -0.0097345 -0.0036445 -0.0049401 -0.0080144 0.0064036 -0.0096341 0.0074306 0.0056038 -0.0039779 -0.0027888 0.0045435 0.0058791 -0.0098119 -0.0056584 -0.00623 0.0097228 -0.0051489 -0.0038643 0.0022141 0.0053676 0.0086699 -0.0088057 0.0064063 -0.00042572 -0.00090474 0.0019733 0.004715 -0.0097695 -0.00083515 -0.0059378 -0.0093733 -0.0014869 0.0066139 0.0077072 0.001833 0.0051227 -0.0095557 0.0011471 0.0080847 -0.0020621 -0.0015652 0.0016978 -0.0021021 0.0036458 0.008939 -0.0025412 
the -0.007002 0.00529 0.0012276 0.0061521 -0.0097308 0.0014343 0.0095719 -0.0030365 0.0036341 -0.0027535 -0.005235 0.0044648 -0.0074358 0.00095997 0.0012948 8.222e-05 -0.0076055 0.0094929 0.0032974 0.0015611 -5.1361e-05 0.0069968 -0.0049083 -0.0040693 -0.0075944 0.0052285 0.0063292 -0.0090994 0.0084034 -0.0052046 0.0039505 0.0024683 -0.0084586 0.0013842 0.0040574 -0.0095132 0.0053813 0.0062125 -0.0060796 -0.0090206 0.0053044 -0.0095101 0.0041351 0.0016382 0.003838 -0.0091239 -0.0042673 0.0021092 0.0091048 0.0039928 0.0066779 0.0075283 0.0030709 0.0044441 0.0029166 0.0046443 0.0026761 -0.0078478 0.0079647 0.0068527 0.0078105 0.0020956 0.0091084 0.0045254 -0.009529 0.0026388 -0.005746 0.006544 0.0041475 0.0086232 -0.00048637 -0.0097218 0.0037258 0.0014174 -0.0032756 -0.0058661 -0.0086622 0.0020092 0.00015122 -0.00023165 0.0083542 0.0067174 -0.0089105 -0.0042078 -0.0040931 -0.003252 -0.0010862 -0.0013188 0.0072696 0.0038599 -0.002776 0.00079797 -0.0023372 0.0023181 -0.0062043 -0.0099447 -0.0071446 -0.0011895 -0.004359 0.0096516 
target 0.0012627 0.0052707 -0.0015046 0.0055526 0.0074367 0.0058551 -0.0034496 -0.0073386 -0.0057518 -0.0070049 -0.0083219 0.0018061 0.0031973 -0.0092228 0.00074622 0.0058093 0.0068652 0.0036026 -0.0092554 0.0046294 0.0001171 -0.0056467 0.0070816 -0.00080113 -0.0068323 0.0088497 0.0062545 0.0038464 0.0093881 0.0071674 0.0060176 0.0023255 0.0016416 -0.0010995 -0.0069365 0.00095365 -0.0039221 0.0062495 -0.0093571 0.0031548 0.0014269 0.00582 -0.0051311 -0.0034347 -0.00049061 -0.0073384 0.0016893 -0.0079781 0.0090623 0.0010253 -0.0063919 0.0029768 -0.0036551 -9.4774e-05 0.0053626 -0.004559 -0.0095226 -0.005679 -0.0019431 -0.0051437 -0.0039651 0.0089247 -0.004227 0.002514 0.0024937 0.0045185 -0.0085251 0.0091379 0.00012064 -0.0055735 -0.0051308 -0.006944 -0.0042834 0.0072373 0.0028175 0.00098998 -0.0043592 -0.0011801 -0.0048481 -0.0048938 -0.0099347 0.0049819 -0.0063205 0.0077755 -0.00075962 -0.0026739 -0.0073014 0.0096702 0.0047299 -0.0084286 -0.0090439 0.0036285 0.0012889 0.0040131 -0.0014717 -0.0083152 -0.0067361 0.0062294 -0.001128 -0.0019438 
resource -0.0013788 -0.0083631 -0.0088358 -0.009142 0.00088918 0.0078685 -0.0038667 -0.0073188 0.0081387 0.0087971 -0.0059436 0.0055035 -0.0077673 -0.0059893 -0.0015229 -0.0027547 0.004815 0.0060644 -0.0019149 -0.0091013 0.0043882 0.0076567 0.0041202 0.0051298 0.0030134 -0.0075324 0.0018842 -0.0087315 -0.0026949 0.0054947 0.0059592 0.002398 0.0026768 -0.0038818 0.0039776 0.00078491 -0.0057249 0.001779 -0.0014227 -0.0043425 0.0057004 0.0074204 -0.0082502 0.0086313 0.0025904 -0.005937 0.0025653 -0.0046831 0.0070283 0.0025686 -0.0096484 -0.0017123 0.0030279 0.006181 -0.0058969 0.0022453 0.0025345 -0.0057872 -0.0089241 0.0088787 0.0034845 0.0011792 0.0023628 0.0040498 -0.0035517 0.0076304 0.0057282 -0.0047915 0.0047584 -0.00054829 0.0072308 0.0037398 -0.00018926 0.0071711 0.0028536 -0.0043782 -0.0073449 0.00023551 -0.0014346 -0.0046788 -0.0094448 0.0018079 0.0029891 -0.00031279 -0.006093 0.0014464 -0.0066682 0.0090342 -0.0050803 0.0060542 0.0056549 -0.0034897 0.0088408 0.0090401 -0.007222 -0.008349 -0.0032348 0.0053799 -0.00017723 0.002166 
is 0.0077332 -0.0034692 0.0010425 -0.00032249 0.0031087 0.0082793 0.0099863 7.2932e-05 -0.0038524 -0.0001552 0.0048715 -0.0083636 -0.0092587 -0.0081006 -0.0017329 0.0094127 -0.00065176 0.0051951 0.0013362 0.0095553 -0.0019913 -0.0025891 -0.0032205 -0.0061934 0.00082333 -0.0018371 -0.00083636 0.0055472 -0.0013208 0.0074335 0.003274 -0.0050089 0.0018195 -0.0080245 0.009752 0.0081947 0.00078239 0.0072711 -0.0071212 -0.0005928 0.0029824 0.0033816 0.0048712 0.0093144 0.0073266 -0.0080299 0.0062918 -0.0037794 -0.0054303 -0.0017528 0.0020517 0.00041363 -0.0051543 -0.0009038 0.0080449 0.0095768 -0.00097333 -0.0099017 0.0099862 0.007306 -0.0043199 -0.0027282 -0.0026028 -0.0075957 -0.0036376 0.0029986 -0.0094628 -0.00089539 -0.0030756 -0.0045736 -0.00044796 0.0077863 -0.0053003 -0.0037606 0.0028252 -0.009438 -0.00054651 0.0039383 0.0042152 -0.0016952 -0.00058741 -0.0036501 0.0045955 -0.0010064 -0.0075301 0.00024691 0.0056178 0.0090879 0.0010379 -0.0010008 -0.00528 0.0069535 -0.0067482 -0.00060789 0.002961 -0.0075767 -0.0026675 0.0047348 -0.00045545 0.0061294 
willing 0.0064243 0.0038935 0.0079521 0.0046411 -0.0023213 0.0011196 0.0063767 -0.0079625 0.0075147 0.0028557 -0.0021881 0.0033345 0.0049635 -0.0036048 -0.0010253 -0.0043979 0.0028316 0.0033748 -0.0002838 -0.0088048 0.009408 0.0084229 -0.0073807 0.0078615 0.0063255 0.00013671 0.0091298 0.0079017 -0.0032794 0.00047262 -0.0095061 0.0059812 0.0083612 0.0082326 0.0052332 0.0041755 0.0033354 -0.00082764 -0.0017193 0.00079459 0.0014137 0.0045423 0.0021415 -0.0061881 0.0047733 0.0034314 0.00065902 -0.0049009 0.0085249 -0.001653 -0.0035592 -0.0024773 -0.0027673 0.0042402 -0.0010996 0.007268 0.0053797 -0.00018572 0.0077599 0.00082442 -0.0055158 -0.0068917 -0.00040646 -0.0029652 0.0067872 -0.0057005 0.0032801 -0.0070137 0.0060297 0.0025698 0.00862 0.00034115 0.0087957 0.0037386 0.0086711 0.0031761 -0.0016911 0.0039058 -0.0080241 0.0066382 0.0063226 -0.002091 0.0083097 0.0045318 0.0022566 -0.0098036 -0.0077762 -0.0010741 0.0026038 -0.0076295 -0.0063351 0.0076037 -0.00078594 0.0029911 0.0049778 0.0056932 -0.0064478 0.0054681 -0.0056396 0.002953 
to 0.0067418 -0.0040695 0.0003503 0.009328 0.0054488 0.0083128 -0.0011832 0.00062833 0.0089825 -0.0025623 0.002776 -0.0084566 -0.0066054 0.0027008 -0.004697 0.0021469 -0.0018015 -0.0077553 0.00096204 -0.0020907 0.0096048 -0.0024476 0.0067747 -0.0093695 -0.0061412 -0.0071288 0.0026931 0.009877 -0.00075602 0.0071714 -0.0095481 0.0069064 0.0012241 -0.0052187 0.00099863 0.0088458 -0.0040554 0.00076413 0.0027374 0.005982 0.0040423 0.0052565 -0.0047121 -0.00043911 0.0057059 -0.0079166 0.0086966 -0.0050724 0.0032992 0.0045161 0.00049428 -0.0049741 -0.007153 0.0064342 0.001974 -0.0043296 0.0013938 0.005356 0.0063013 0.00088124 -0.0041295 -0.0027919 -0.0023845 -0.0068328 0.0027991 -0.0021348 -0.00046253 0.00034742 0.0053369 0.00065319 -0.0021144 0.0012822 -0.002098 0.0098423 -0.0047775 -0.0036654 -0.0048098 -0.0055686 0.0049464 0.00050637 0.0037021 -0.0033851 0.00074541 0.0091687 -0.0097928 -0.0078724 -0.0066153 -0.0089845 -0.0067848 -0.007097 0.0081858 0.0040184 -0.0082614 -0.0021864 -0.0016866 0.0030442 -0.0026907 -0.0042684 0.0044174 -0.0013994 
